digraph Tree {
node [shape=box, style="filled, rounded", color="black", fontname=helvetica] ;
edge [fontname=helvetica] ;
0 [label="X[1] <= 0.5\nentropy = 0.961\nsamples = 891\nvalue = [549, 342]", fillcolor="#e5813960"] ;
1 [label="X[14] <= 0.5\nentropy = 0.699\nsamples = 577\nvalue = [468, 109]", fillcolor="#e58139c4"] ;
0 -> 1 [labeldistance=2.5, labelangle=45, headlabel="True"] ;
2 [label="X[2] <= 17.5\nentropy = 0.982\nsamples = 107\nvalue = [62, 45]", fillcolor="#e5813946"] ;
1 -> 2 ;
3 [label="entropy = 0.0\nsamples = 8\nvalue = [0, 8]", fillcolor="#399de5ff"] ;
2 -> 3 ;
4 [label="X[5] <= 7.9\nentropy = 0.953\nsamples = 99\nvalue = [62, 37]", fillcolor="#e5813967"] ;
2 -> 4 ;
5 [label="entropy = 0.0\nsamples = 8\nvalue = [8, 0]", fillcolor="#e58139ff"] ;
4 -> 5 ;
6 [label="X[2] <= 43.0\nentropy = 0.975\nsamples = 91\nvalue = [54, 37]", fillcolor="#e5813950"] ;
4 -> 6 ;
7 [label="X[11] <= 0.5\nentropy = 0.999\nsamples = 52\nvalue = [25, 27]", fillcolor="#399de513"] ;
6 -> 7 ;
8 [label="X[2] <= 22.0\nentropy = 0.991\nsamples = 45\nvalue = [25, 20]", fillcolor="#e5813933"] ;
7 -> 8 ;
9 [label="entropy = 0.0\nsamples = 4\nvalue = [4, 0]", fillcolor="#e58139ff"] ;
8 -> 9 ;
10 [label="X[5] <= 379.925\nentropy = 1.0\nsamples = 41\nvalue = [21, 20]", fillcolor="#e581390c"] ;
8 -> 10 ;
11 [label="X[5] <= 136.731\nentropy = 0.996\nsamples = 39\nvalue = [21, 18]", fillcolor="#e5813924"] ;
10 -> 11 ;
12 [label="X[2] <= 37.5\nentropy = 0.999\nsamples = 35\nvalue = [17, 18]", fillcolor="#399de50e"] ;
11 -> 12 ;
13 [label="entropy = 0.997\nsamples = 32\nvalue = [17, 15]", fillcolor="#e581391e"] ;
12 -> 13 ;
14 [label="entropy = 0.0\nsamples = 3\nvalue = [0, 3]", fillcolor="#399de5ff"] ;
12 -> 14 ;
15 [label="entropy = 0.0\nsamples = 4\nvalue = [4, 0]", fillcolor="#e58139ff"] ;
11 -> 15 ;
16 [label="entropy = 0.0\nsamples = 2\nvalue = [0, 2]", fillcolor="#399de5ff"] ;
10 -> 16 ;
17 [label="entropy = 0.0\nsamples = 7\nvalue = [0, 7]", fillcolor="#399de5ff"] ;
7 -> 17 ;
18 [label="X[2] <= 47.5\nentropy = 0.821\nsamples = 39\nvalue = [29, 10]", fillcolor="#e58139a7"] ;
6 -> 18 ;
19 [label="entropy = 0.0\nsamples = 11\nvalue = [11, 0]", fillcolor="#e58139ff"] ;
18 -> 19 ;
20 [label="X[2] <= 49.5\nentropy = 0.94\nsamples = 28\nvalue = [18, 10]", fillcolor="#e5813971"] ;
18 -> 20 ;
21 [label="entropy = 0.65\nsamples = 6\nvalue = [1, 5]", fillcolor="#399de5cc"] ;
20 -> 21 ;
22 [label="X[2] <= 75.5\nentropy = 0.773\nsamples = 22\nvalue = [17, 5]", fillcolor="#e58139b4"] ;
20 -> 22 ;
23 [label="X[2] <= 60.5\nentropy = 0.702\nsamples = 21\nvalue = [17, 4]", fillcolor="#e58139c3"] ;
22 -> 23 ;
24 [label="X[5] <= 79.425\nentropy = 0.89\nsamples = 13\nvalue = [9, 4]", fillcolor="#e581398e"] ;
23 -> 24 ;
25 [label="entropy = 0.971\nsamples = 10\nvalue = [6, 4]", fillcolor="#e5813955"] ;
24 -> 25 ;
26 [label="entropy = 0.0\nsamples = 3\nvalue = [3, 0]", fillcolor="#e58139ff"] ;
24 -> 26 ;
27 [label="entropy = 0.0\nsamples = 8\nvalue = [8, 0]", fillcolor="#e58139ff"] ;
23 -> 27 ;
28 [label="entropy = 0.0\nsamples = 1\nvalue = [0, 1]", fillcolor="#399de5ff"] ;
22 -> 28 ;
29 [label="X[2] <= 9.5\nentropy = 0.574\nsamples = 470\nvalue = [406, 64]", fillcolor="#e58139d7"] ;
1 -> 29 ;
30 [label="X[16] <= 3.5\nentropy = 1.0\nsamples = 26\nvalue = [13, 13]", fillcolor="#e5813900"] ;
29 -> 30 ;
31 [label="entropy = 0.0\nsamples = 12\nvalue = [0, 12]", fillcolor="#399de5ff"] ;
30 -> 31 ;
32 [label="X[16] <= 5.5\nentropy = 0.371\nsamples = 14\nvalue = [13, 1]", fillcolor="#e58139eb"] ;
30 -> 32 ;
33 [label="entropy = 0.0\nsamples = 9\nvalue = [9, 0]", fillcolor="#e58139ff"] ;
32 -> 33 ;
34 [label="entropy = 0.722\nsamples = 5\nvalue = [4, 1]", fillcolor="#e58139bf"] ;
32 -> 34 ;
35 [label="X[5] <= 54.248\nentropy = 0.514\nsamples = 444\nvalue = [393, 51]", fillcolor="#e58139de"] ;
29 -> 35 ;
36 [label="X[6] <= 0.5\nentropy = 0.489\nsamples = 423\nvalue = [378, 45]", fillcolor="#e58139e1"] ;
35 -> 36 ;
37 [label="X[5] <= 27.135\nentropy = 0.708\nsamples = 57\nvalue = [46, 11]", fillcolor="#e58139c2"] ;
36 -> 37 ;
38 [label="X[5] <= 15.148\nentropy = 0.785\nsamples = 47\nvalue = [36, 11]", fillcolor="#e58139b1"] ;
37 -> 38 ;
39 [label="X[2] <= 22.5\nentropy = 0.619\nsamples = 39\nvalue = [33, 6]", fillcolor="#e58139d1"] ;
38 -> 39 ;
40 [label="entropy = 0.985\nsamples = 7\nvalue = [4, 3]", fillcolor="#e5813940"] ;
39 -> 40 ;
41 [label="X[5] <= 7.227\nentropy = 0.449\nsamples = 32\nvalue = [29, 3]", fillcolor="#e58139e5"] ;
39 -> 41 ;
42 [label="entropy = 0.0\nsamples = 10\nvalue = [10, 0]", fillcolor="#e58139ff"] ;
41 -> 42 ;
43 [label="X[5] <= 14.158\nentropy = 0.575\nsamples = 22\nvalue = [19, 3]", fillcolor="#e58139d7"] ;
41 -> 43 ;
44 [label="entropy = 0.672\nsamples = 17\nvalue = [14, 3]", fillcolor="#e58139c8"] ;
43 -> 44 ;
45 [label="entropy = 0.0\nsamples = 5\nvalue = [5, 0]", fillcolor="#e58139ff"] ;
43 -> 45 ;
46 [label="entropy = 0.954\nsamples = 8\nvalue = [3, 5]", fillcolor="#399de566"] ;
38 -> 46 ;
47 [label="entropy = 0.0\nsamples = 10\nvalue = [10, 0]", fillcolor="#e58139ff"] ;
37 -> 47 ;
48 [label="X[4] <= 0.5\nentropy = 0.446\nsamples = 366\nvalue = [332, 34]", fillcolor="#e58139e5"] ;
36 -> 48 ;
49 [label="X[5] <= 26.275\nentropy = 0.471\nsamples = 338\nvalue = [304, 34]", fillcolor="#e58139e2"] ;
48 -> 49 ;
50 [label="X[17] <= 0.5\nentropy = 0.443\nsamples = 326\nvalue = [296, 30]", fillcolor="#e58139e5"] ;
49 -> 50 ;
51 [label="X[2] <= 20.25\nentropy = 0.583\nsamples = 86\nvalue = [74, 12]", fillcolor="#e58139d6"] ;
50 -> 51 ;
52 [label="X[5] <= 7.525\nentropy = 0.961\nsamples = 13\nvalue = [8, 5]", fillcolor="#e5813960"] ;
51 -> 52 ;
53 [label="entropy = 0.0\nsamples = 3\nvalue = [3, 0]", fillcolor="#e58139ff"] ;
52 -> 53 ;
54 [label="entropy = 1.0\nsamples = 10\nvalue = [5, 5]", fillcolor="#e5813900"] ;
52 -> 54 ;
55 [label="X[5] <= 7.988\nentropy = 0.456\nsamples = 73\nvalue = [66, 7]", fillcolor="#e58139e4"] ;
51 -> 55 ;
56 [label="entropy = 0.661\nsamples = 35\nvalue = [29, 6]", fillcolor="#e58139ca"] ;
55 -> 56 ;
57 [label="entropy = 0.176\nsamples = 38\nvalue = [37, 1]", fillcolor="#e58139f8"] ;
55 -> 57 ;
58 [label="X[2] <= 20.5\nentropy = 0.384\nsamples = 240\nvalue = [222, 18]", fillcolor="#e58139ea"] ;
50 -> 58 ;
59 [label="entropy = 0.0\nsamples = 33\nvalue = [33, 0]", fillcolor="#e58139ff"] ;
58 -> 59 ;
60 [label="X[2] <= 45.5\nentropy = 0.426\nsamples = 207\nvalue = [189, 18]", fillcolor="#e58139e7"] ;
58 -> 60 ;
61 [label="entropy = 0.46\nsamples = 185\nvalue = [167, 18]", fillcolor="#e58139e4"] ;
60 -> 61 ;
62 [label="entropy = 0.0\nsamples = 22\nvalue = [22, 0]", fillcolor="#e58139ff"] ;
60 -> 62 ;
63 [label="X[5] <= 30.75\nentropy = 0.918\nsamples = 12\nvalue = [8, 4]", fillcolor="#e581397f"] ;
49 -> 63 ;
64 [label="entropy = 1.0\nsamples = 8\nvalue = [4, 4]", fillcolor="#e5813900"] ;
63 -> 64 ;
65 [label="entropy = 0.0\nsamples = 4\nvalue = [4, 0]", fillcolor="#e58139ff"] ;
63 -> 65 ;
66 [label="entropy = 0.0\nsamples = 28\nvalue = [28, 0]", fillcolor="#e58139ff"] ;
48 -> 66 ;
67 [label="X[5] <= 58.938\nentropy = 0.863\nsamples = 21\nvalue = [15, 6]", fillcolor="#e5813999"] ;
35 -> 67 ;
68 [label="entropy = 0.863\nsamples = 7\nvalue = [2, 5]", fillcolor="#399de599"] ;
67 -> 68 ;
69 [label="X[2] <= 41.0\nentropy = 0.371\nsamples = 14\nvalue = [13, 1]", fillcolor="#e58139eb"] ;
67 -> 69 ;
70 [label="entropy = 0.0\nsamples = 12\nvalue = [12, 0]", fillcolor="#e58139ff"] ;
69 -> 70 ;
71 [label="entropy = 1.0\nsamples = 2\nvalue = [1, 1]", fillcolor="#e5813900"] ;
69 -> 71 ;
72 [label="X[0] <= 2.5\nentropy = 0.824\nsamples = 314\nvalue = [81, 233]", fillcolor="#399de5a6"] ;
0 -> 72 [labeldistance=2.5, labelangle=-45, headlabel="False"] ;
73 [label="X[5] <= 28.856\nentropy = 0.299\nsamples = 170\nvalue = [9, 161]", fillcolor="#399de5f1"] ;
72 -> 73 ;
74 [label="X[5] <= 28.231\nentropy = 0.469\nsamples = 70\nvalue = [7, 63]", fillcolor="#399de5e3"] ;
73 -> 74 ;
75 [label="X[2] <= 23.5\nentropy = 0.426\nsamples = 69\nvalue = [6, 63]", fillcolor="#399de5e7"] ;
74 -> 75 ;
76 [label="entropy = 0.0\nsamples = 15\nvalue = [0, 15]", fillcolor="#399de5ff"] ;
75 -> 76 ;
77 [label="X[2] <= 27.5\nentropy = 0.503\nsamples = 54\nvalue = [6, 48]", fillcolor="#399de5df"] ;
75 -> 77 ;
78 [label="X[2] <= 25.5\nentropy = 0.845\nsamples = 11\nvalue = [3, 8]", fillcolor="#399de59f"] ;
77 -> 78 ;
79 [label="entropy = 0.592\nsamples = 7\nvalue = [1, 6]", fillcolor="#399de5d4"] ;
78 -> 79 ;
80 [label="entropy = 1.0\nsamples = 4\nvalue = [2, 2]", fillcolor="#e5813900"] ;
78 -> 80 ;
81 [label="X[2] <= 37.0\nentropy = 0.365\nsamples = 43\nvalue = [3, 40]", fillcolor="#399de5ec"] ;
77 -> 81 ;
82 [label="entropy = 0.0\nsamples = 24\nvalue = [0, 24]", fillcolor="#399de5ff"] ;
81 -> 82 ;
83 [label="X[11] <= 0.5\nentropy = 0.629\nsamples = 19\nvalue = [3, 16]", fillcolor="#399de5cf"] ;
81 -> 83 ;
84 [label="X[2] <= 39.0\nentropy = 0.503\nsamples = 18\nvalue = [2, 16]", fillcolor="#399de5df"] ;
83 -> 84 ;
85 [label="entropy = 0.0\nsamples = 1\nvalue = [1, 0]", fillcolor="#e58139ff"] ;
84 -> 85 ;
86 [label="X[3] <= 0.5\nentropy = 0.323\nsamples = 17\nvalue = [1, 16]", fillcolor="#399de5ef"] ;
84 -> 86 ;
87 [label="entropy = 0.0\nsamples = 13\nvalue = [0, 13]", fillcolor="#399de5ff"] ;
86 -> 87 ;
88 [label="entropy = 0.811\nsamples = 4\nvalue = [1, 3]", fillcolor="#399de5aa"] ;
86 -> 88 ;
89 [label="entropy = 0.0\nsamples = 1\nvalue = [1, 0]", fillcolor="#e58139ff"] ;
83 -> 89 ;
90 [label="entropy = 0.0\nsamples = 1\nvalue = [1, 0]", fillcolor="#e58139ff"] ;
74 -> 90 ;
91 [label="X[16] <= 2.5\nentropy = 0.141\nsamples = 100\nvalue = [2, 98]", fillcolor="#399de5fa"] ;
73 -> 91 ;
92 [label="entropy = 0.0\nsamples = 87\nvalue = [0, 87]", fillcolor="#399de5ff"] ;
91 -> 92 ;
93 [label="X[9] <= 0.5\nentropy = 0.619\nsamples = 13\nvalue = [2, 11]", fillcolor="#399de5d1"] ;
91 -> 93 ;
94 [label="entropy = 0.0\nsamples = 9\nvalue = [0, 9]", fillcolor="#399de5ff"] ;
93 -> 94 ;
95 [label="entropy = 1.0\nsamples = 4\nvalue = [2, 2]", fillcolor="#e5813900"] ;
93 -> 95 ;
96 [label="X[5] <= 23.35\nentropy = 1.0\nsamples = 144\nvalue = [72, 72]", fillcolor="#e5813900"] ;
72 -> 96 ;
97 [label="X[2] <= 36.5\nentropy = 0.977\nsamples = 117\nvalue = [48, 69]", fillcolor="#399de54e"] ;
96 -> 97 ;
98 [label="X[6] <= 1.5\nentropy = 0.959\nsamples = 110\nvalue = [42, 68]", fillcolor="#399de561"] ;
97 -> 98 ;
99 [label="X[5] <= 15.621\nentropy = 0.86\nsamples = 53\nvalue = [15, 38]", fillcolor="#399de59a"] ;
98 -> 99 ;
100 [label="X[5] <= 13.935\nentropy = 0.918\nsamples = 45\nvalue = [15, 30]", fillcolor="#399de57f"] ;
99 -> 100 ;
101 [label="X[2] <= 17.0\nentropy = 0.758\nsamples = 32\nvalue = [7, 25]", fillcolor="#399de5b8"] ;
100 -> 101 ;
102 [label="entropy = 0.0\nsamples = 7\nvalue = [0, 7]", fillcolor="#399de5ff"] ;
101 -> 102 ;
103 [label="X[16] <= 1.0\nentropy = 0.855\nsamples = 25\nvalue = [7, 18]", fillcolor="#399de59c"] ;
101 -> 103 ;
104 [label="X[5] <= 6.988\nentropy = 0.811\nsamples = 24\nvalue = [6, 18]", fillcolor="#399de5aa"] ;
103 -> 104 ;
105 [label="entropy = 0.0\nsamples = 1\nvalue = [1, 0]", fillcolor="#e58139ff"] ;
104 -> 105 ;
106 [label="entropy = 0.755\nsamples = 23\nvalue = [5, 18]", fillcolor="#399de5b8"] ;
104 -> 106 ;
107 [label="entropy = 0.0\nsamples = 1\nvalue = [1, 0]", fillcolor="#e58139ff"] ;
103 -> 107 ;
108 [label="X[5] <= 15.373\nentropy = 0.961\nsamples = 13\nvalue = [8, 5]", fillcolor="#e5813960"] ;
100 -> 108 ;
109 [label="entropy = 0.764\nsamples = 9\nvalue = [7, 2]", fillcolor="#e58139b6"] ;
108 -> 109 ;
110 [label="entropy = 0.811\nsamples = 4\nvalue = [1, 3]", fillcolor="#399de5aa"] ;
108 -> 110 ;
111 [label="entropy = 0.0\nsamples = 8\nvalue = [0, 8]", fillcolor="#399de5ff"] ;
99 -> 111 ;
112 [label="X[2] <= 32.0\nentropy = 0.998\nsamples = 57\nvalue = [27, 30]", fillcolor="#399de519"] ;
98 -> 112 ;
113 [label="X[5] <= 7.762\nentropy = 1.0\nsamples = 54\nvalue = [27, 27]", fillcolor="#e5813900"] ;
112 -> 113 ;
114 [label="entropy = 0.65\nsamples = 6\nvalue = [1, 5]", fillcolor="#399de5cc"] ;
113 -> 114 ;
115 [label="X[5] <= 10.825\nentropy = 0.995\nsamples = 48\nvalue = [26, 22]", fillcolor="#e5813927"] ;
113 -> 115 ;
116 [label="X[5] <= 10.152\nentropy = 0.918\nsamples = 27\nvalue = [18, 9]", fillcolor="#e581397f"] ;
115 -> 116 ;
117 [label="X[4] <= 0.5\nentropy = 0.954\nsamples = 24\nvalue = [15, 9]", fillcolor="#e5813966"] ;
116 -> 117 ;
118 [label="entropy = 0.902\nsamples = 22\nvalue = [15, 7]", fillcolor="#e5813988"] ;
117 -> 118 ;
119 [label="entropy = 0.0\nsamples = 2\nvalue = [0, 2]", fillcolor="#399de5ff"] ;
117 -> 119 ;
120 [label="entropy = 0.0\nsamples = 3\nvalue = [3, 0]", fillcolor="#e58139ff"] ;
116 -> 120 ;
121 [label="X[5] <= 17.25\nentropy = 0.959\nsamples = 21\nvalue = [8, 13]", fillcolor="#399de562"] ;
115 -> 121 ;
122 [label="X[3] <= 0.5\nentropy = 0.619\nsamples = 13\nvalue = [2, 11]", fillcolor="#399de5d1"] ;
121 -> 122 ;
123 [label="entropy = 0.0\nsamples = 6\nvalue = [0, 6]", fillcolor="#399de5ff"] ;
122 -> 123 ;
124 [label="entropy = 0.863\nsamples = 7\nvalue = [2, 5]", fillcolor="#399de599"] ;
122 -> 124 ;
125 [label="entropy = 0.811\nsamples = 8\nvalue = [6, 2]", fillcolor="#e58139aa"] ;
121 -> 125 ;
126 [label="entropy = 0.0\nsamples = 3\nvalue = [0, 3]", fillcolor="#399de5ff"] ;
112 -> 126 ;
127 [label="entropy = 0.592\nsamples = 7\nvalue = [6, 1]", fillcolor="#e58139d4"] ;
97 -> 127 ;
128 [label="X[4] <= 0.5\nentropy = 0.503\nsamples = 27\nvalue = [24, 3]", fillcolor="#e58139df"] ;
96 -> 128 ;
129 [label="entropy = 0.0\nsamples = 1\nvalue = [0, 1]", fillcolor="#399de5ff"] ;
128 -> 129 ;
130 [label="X[5] <= 31.331\nentropy = 0.391\nsamples = 26\nvalue = [24, 2]", fillcolor="#e58139ea"] ;
128 -> 130 ;
131 [label="entropy = 0.0\nsamples = 15\nvalue = [15, 0]", fillcolor="#e58139ff"] ;
130 -> 131 ;
132 [label="X[5] <= 32.881\nentropy = 0.684\nsamples = 11\nvalue = [9, 2]", fillcolor="#e58139c6"] ;
130 -> 132 ;
133 [label="entropy = 0.0\nsamples = 2\nvalue = [0, 2]", fillcolor="#399de5ff"] ;
132 -> 133 ;
134 [label="entropy = 0.0\nsamples = 9\nvalue = [9, 0]", fillcolor="#e58139ff"] ;
132 -> 134 ;
}